// This file is computer-generated by onnx2c 
// (TODO: add creating command line here)
// (TODO: print creation date here )

// ONNX model:
// produced by pytorch, version 1.13.0
// ONNX IR version: 14
// Model documentation: 
/*

*/

#include <float.h>
#include <math.h>
#include <stdbool.h>
#include <stdint.h>
#include <string.h>
#define MAX(X,Y) ( X > Y ? X : Y)
#define MIN(X,Y) ( X < Y ? X : Y)
#define CLIP(X,L) ( MAX(MIN(X,L), -L) )

static const float tensor_main_0_weight[5][1][3][3] = 
{
  {
    {
      {0.16150248050689697266f, 0.31866675615310668945f, 0.23742151260375976562f},
      {-0.14711932837963104248f, -0.28546392917633056641f, -0.30516779422760009766f},
      {-0.13583004474639892578f, -0.23730385303497314453f, 0.050998769700527191162f}
    }
  },
  {
    {
      {0.0094821453094482421875f, 0.12842059135437011719f, 0.0012896856060251593590f},
      {-0.32465898990631103516f, -0.13030521571636199951f, 0.24076294898986816406f},
      {0.021550577133893966675f, 0.17019283771514892578f, -0.21595668792724609375f}
    }
  },
  {
    {
      {0.21123754978179931641f, -0.26749426126480102539f, 0.14483794569969177246f},
      {0.28039988875389099121f, 0.20983617007732391357f, -0.21327278017997741699f},
      {0.10446333885192871094f, 0.095310017466545104980f, -0.10933534801006317139f}
    }
  },
  {
    {
      {0.048464775085449218750f, 0.32089197635650634766f, 0.20048777759075164795f},
      {-0.12154348939657211304f, 0.012390375137329101562f, 0.27207767963409423828f},
      {-0.30186435580253601074f, 0.14881758391857147217f, -0.31449496746063232422f}
    }
  },
  {
    {
      {-0.15120983123779296875f, -0.27392542362213134766f, -0.038689851760864257812f},
      {0.11136774718761444092f, 0.15727970004081726074f, 0.043687742203474044800f},
      {0.19430598616600036621f, -0.22038424015045166016f, -0.029347857460379600525f}
    }
  }
};
static const float tensor_main_0_bias[5] = 
{-0.28406819701194763184f, -0.19257943332195281982f, 0.21639680862426757812f, -0.19520601630210876465f, 0.095050737261772155762f};
static const float tensor_main_3_weight[1][800] = 
{
  {0.027791835367679595947f, 0.0044176476076245307922f, 0.018755929544568061829f, 0.016562126576900482178f, 0.028664533048868179321f, 0.033671166747808456421f, -0.0055344547145068645477f, 0.014198043383657932281f, 0.026919834315776824951f, -0.0049736401997506618500f, -0.032257620245218276978f, 0.014724440872669219971f, -0.022009056061506271362f, -0.025413678959012031555f, -0.034846156835556030273f, -0.0099974144250154495239f, 0.023968417197465896606f, 0.029843762516975402832f, -0.029378769919276237488f, 0.0016125680413097143173f, 0.016543621197342872620f, -0.016196001321077346802f, 0.013372993096709251404f, 0.026837041601538658142f, -0.0055516799911856651306f, 0.033379413187503814697f, 0.033769667148590087891f, 0.034678056836128234863f, 0.032940018922090530396f, -0.0021655769087374210358f, 0.020018119364976882935f, 0.020283374935388565063f, -0.033515505492687225342f, 0.016022104769945144653f, 0.020002089440822601318f, -0.0081147644668817520142f, -0.014207787811756134033f, 0.017725402489304542542f, -0.026495002210140228271f, 0.0031903353519737720490f, 0.018178269267082214355f, 0.025381946936249732971f, 0.022411810234189033508f, 0.028827855363488197327f, -0.014031929895281791687f, -0.029613969847559928894f, 0.0084690935909748077393f, 0.010768663138151168823f, -0.0080834496766328811646f, 0.0061404672451317310333f, -0.0074552469886839389801f, -0.031287871301174163818f, 0.0027784763369709253311f, 0.034798417240381240845f, 0.0082024727016687393188f, 0.013171342201530933380f, 0.019921202212572097778f, -0.0079246321693062782288f, 0.0094025954604148864746f, 0.0075059537775814533234f, -0.0046743848361074924469f, 0.0048457710072398185730f, -0.0010946084512397646904f, -0.032476790249347686768f, -0.030189873650670051575f, 0.022390421479940414429f, 0.033010434359312057495f, -0.025864269584417343140f, -0.018541883677244186401f, -0.024143153801560401917f, 0.014421067200601100922f, -0.019828120246529579163f, -0.010713543742895126343f, 0.0062457881867885589600f, 0.00050999794621020555496f, 0.014658147469162940979f, 0.020906809717416763306f, 0.0017126878956332802773f, -0.017538821324706077576f, -0.021264813840389251709f, 0.0067212339490652084351f, 0.0079045742750167846680f, 0.020044650882482528687f, -0.016480978578329086304f, -0.033738460391759872437f, 0.030522715300321578979f, -0.0039946110919117927551f, 0.0029468361753970384598f, -0.014047431759536266327f, 0.017405461519956588745f, -0.024865437299013137817f, -0.011848608963191509247f, 0.013121575117111206055f, 0.014668258838355541229f, -0.022396679967641830444f, -0.017222030088305473328f, 0.0062263160943984985352f, -0.033070538192987442017f, -0.025276932865381240845f, -0.024433510378003120422f, 0.013440006412565708160f, -0.013633102178573608398f, -0.018147831782698631287f, -0.031198868528008460999f, 0.0067182839848101139069f, 0.014782725833356380463f, -0.022013831883668899536f, 0.024284336715936660767f, 0.0040567563846707344055f, 0.029237009584903717041f, 0.012500321492552757263f, -0.0020350860431790351868f, 0.0084743658080697059631f, 0.029351163655519485474f, -0.015788404271006584167f, -0.0031773245427757501602f, -0.023736456409096717834f, -0.010838121175765991211f, -0.024410739541053771973f, 0.031304679811000823975f, 0.014031807892024517059f, -0.0071000205352902412415f, 0.030375782400369644165f, 0.026475390419363975525f, 0.014822760596871376038f, 0.020676519721746444702f, -0.026488002389669418335f, -0.013872859068214893341f, -0.016173487529158592224f, 0.016475334763526916504f, -0.0058672716841101646423f, 0.0023584240116178989410f, -0.023946458473801612854f, 0.020925043150782585144f, 0.018832400441169738770f, -0.033989239484071731567f, -0.023646440356969833374f, -0.029609177261590957642f, -0.0087680453434586524963f, -0.030207242816686630249f, 0.00013303653395269066095f, 0.020938087254762649536f, 0.0074398000724613666534f, -0.026257853955030441284f, -0.0076953656971454620361f, 0.031611382961273193359f, 0.034642059355974197388f, 0.032386921346187591553f, 0.0030060692224651575089f, 0.014868228696286678314f, 0.0038920002989470958710f, -0.022351590916514396667f, -0.016373397782444953918f, 0.031012963503599166870f, -0.032692804932594299316f, 0.0028977140318602323532f, 0.0028252298943698406219f, -0.0013094436144456267357f, -0.0096523240208625793457f, 0.017660066485404968262f, -0.0099089015275239944458f, -0.0032027179840952157974f, 0.022179948166012763977f, 0.030966259539127349854f, -0.022718353196978569031f, -0.012474844232201576233f, -0.031225884333252906799f, 0.0022942933719605207443f, -0.025944050401449203491f, 0.0031477713491767644882f, -0.0066667804494500160217f, -0.035285796970129013062f, -0.0058697327040135860443f, 0.0048151258379220962524f, -0.031373322010040283203f, 0.029257386922836303711f, -0.034758504480123519897f, 0.0039404188282787799835f, 0.020900977775454521179f, -0.0046350029297173023224f, 0.0035954425111413002014f, -0.015568291768431663513f, -0.0086316661909222602844f, 0.017476271837949752808f, 0.022441428154706954956f, 0.033295392990112304688f, 0.030114047229290008545f, 0.0050952886231243610382f, 0.0060489117167890071869f, 0.0061574187129735946655f, -0.030285846441984176636f, -0.013066855259239673615f, -0.0044025969691574573517f, 0.030386256054043769836f, -0.018003571778535842896f, -0.0053290687501430511475f, 0.030509730800986289978f, 0.022568214684724807739f, -0.021459132432937622070f, -0.0067425309680402278900f, 0.00023617409169673919678f, 0.034422975033521652222f, -0.022544771432876586914f, 0.029172642156481742859f, 0.031546782702207565308f, 0.00091355829499661922455f, -0.017076108604669570923f, 0.026211805641651153564f, -0.0060092727653682231903f, 0.013770400546491146088f, 0.0055333459749817848206f, 0.035351485013961791992f, 0.029742307960987091064f, 0.031179789453744888306f, 0.0081204632297158241272f, -0.011854425072669982910f, -0.016910614445805549622f, -0.012953151948750019073f, 0.020340163260698318481f, 0.019932270050048828125f, -0.029303811490535736084f, 0.020072324201464653015f, -0.0058429781347513198853f, 0.022762581706047058105f, -0.015232154168188571930f, -0.025786576792597770691f, -0.011687435209751129150f, 0.0014289552345871925354f, 0.032230798155069351196f, 0.014985047280788421631f, 0.010048955678939819336f, -0.035034704953432083130f, 0.022789092734456062317f, -0.0099263545125722885132f, -0.030220871791243553162f, 0.010840333998203277588f, -0.023368388414382934570f, 0.022836411371827125549f, -0.031636659055948257446f, 0.029323726892471313477f, -0.0030231683049350976944f, 0.034140054136514663696f, -0.0036856157239526510239f, 0.0041790120303630828857f, 0.021873313933610916138f, 0.023300494998693466187f, -0.017810722813010215759f, 0.025592966005206108093f, -0.0099699264392256736755f, -0.024332005530595779419f, -0.022633798420429229736f, 0.023556048050522804260f, 0.021226249635219573975f, -0.023239018395543098450f, 0.00098268326837569475174f, -0.0068062399514019489288f, -0.0082685463130474090576f, 0.0093829212710261344910f, -0.00099290814250707626343f, 0.031401056796312332153f, 0.0090012308210134506226f, 0.011024958454072475433f, 0.022664101794362068176f, -0.0022617981303483247757f, -0.017493864521384239197f, 0.0025853300467133522034f, 0.017661506310105323792f, -0.031671810895204544067f, -0.00062416115542873740196f, 0.024067921563982963562f, -0.0089108468964695930481f, -0.011830199509859085083f, -0.0071168537251651287079f, 0.034137215465307235718f, -0.029382975772023200989f, -0.017615811899304389954f, 0.0034151591826230287552f, -0.026683166623115539551f, 0.028485264629125595093f, -0.0058352188207209110260f, 0.00044842142960987985134f, -0.0076981643214821815491f, 0.034590460360050201416f, 0.011123658157885074615f, 0.028364401310682296753f, 0.032708503305912017822f, -0.025318788364529609680f, -0.014954637736082077026f, -0.013024237006902694702f, -0.034200612455606460571f, -0.0060098287649452686310f, -0.0024597912561148405075f, 0.031037092208862304688f, -0.019895711913704872131f, 0.012937995605170726776f, 0.0088790049776434898376f, 0.0096617443487048149109f, -0.033504325896501541138f, 0.019398327916860580444f, 0.035025641322135925293f, 0.034338753670454025269f, 0.0029005082324147224426f, -0.026363680139183998108f, 0.031730249524116516113f, 0.0089282374829053878784f, 0.028507918119430541992f, -0.011415036395192146301f, 0.011671036481857299805f, -0.013960516080260276794f, 0.013378430157899856567f, -0.028416136279702186584f, -0.013159371912479400635f, -0.028325743973255157471f, -0.0074998592026531696320f, 0.0096387229859828948975f, 0.0073323170654475688934f, -0.031052108854055404663f, 0.018396923318505287170f, -4.3023504986194893718e-05f, -0.0012139894533902406693f, -0.023579750210046768188f, 0.022396896034479141235f, -0.011051666922867298126f, 0.011357012204825878143f, 0.027015367522835731506f, -0.023081613704562187195f, 0.0080963717773556709290f, -0.0067576868459582328796f, 0.023893155157566070557f, -0.019428921863436698914f, 0.017716929316520690918f, 0.0010399103630334138870f, 0.010113895870745182037f, 0.022214559838175773621f, 0.017103258520364761353f, -0.030585518106818199158f, -0.023859167471528053284f, -0.0056227394379675388336f, -0.034390922635793685913f, -0.026682432740926742554f, 0.0055688209831714630127f, -0.025344215333461761475f, 0.0076669333502650260925f, 0.0049550873227417469025f, -0.025798618793487548828f, -0.022140735760331153870f, -0.023440649732947349548f, -0.016480568796396255493f, 0.0078629041090607643127f, -0.0062055969610810279846f, -0.020579569041728973389f, -0.0014873666223138570786f, 0.015846677124500274658f, 0.020320665091276168823f, -0.0020358446054160594940f, 0.0083364611491560935974f, 0.013855300843715667725f, 0.011362710967659950256f, -0.016380583867430686951f, 0.032616656273603439331f, -0.011196804232895374298f, 0.0027993980329483747482f, -0.028083689510822296143f, 0.033545948565006256104f, -0.014262081123888492584f, -0.0042758779600262641907f, 0.011386654339730739594f, 0.0020517297089099884033f, -0.012566905468702316284f, -0.018144834786653518677f, 0.030234549194574356079f, -0.011822571046650409698f, -0.00072587834438309073448f, 0.014104355126619338989f, -0.031855225563049316406f, 0.0095447152853012084961f, 0.010221551172435283661f, 0.027218490839004516602f, -0.025210024788975715637f, 0.029860073700547218323f, 0.021566150709986686707f, 0.017984110862016677856f, -0.016630379483103752136f, -0.026049235835671424866f, 0.032266899943351745605f, 0.0090384213253855705261f, 0.031331054866313934326f, -0.0075219022110104560852f, -0.012280480004847049713f, -0.012995568104088306427f, 0.022164050489664077759f, 0.0092233074828982353210f, -0.034046351909637451172f, 0.0038143531419336795807f, -0.021121678873896598816f, -0.032674387097358703613f, -0.020016450434923171997f, -0.033462252467870712280f, -0.017308127135038375854f, 0.011315392330288887024f, 0.0015238994965329766273f, 0.022197874262928962708f, -0.0084219686686992645264f, -0.024049591273069381714f, 0.023281853646039962769f, -0.0062183463014662265778f, 0.021505005657672882080f, -0.016390383243560791016f, -0.0077532758004963397980f, 0.0053429687395691871643f, -0.033459596335887908936f, -0.025569327175617218018f, 0.035282187163829803467f, 0.0017238651635125279427f, -0.020355427637696266174f, -0.018851224333047866821f, 0.027263710275292396545f, -0.0059898220933973789215f, -0.00081714312545955181122f, -0.014702562242746353149f, 0.0032837074249982833862f, -0.026962988078594207764f, 0.022324331104755401611f, -0.022940669208765029907f, 0.011179072782397270203f, 0.018454007804393768311f, -0.010706783272325992584f, 0.010619897395372390747f, 0.0072575947269797325134f, -0.021312739700078964233f, -0.0065498524345457553864f, 0.015445496886968612671f, -0.0058816056698560714722f, 0.034409329295158386230f, 0.029893990606069564819f, 0.029784874990582466125f, -0.021701451390981674194f, 0.010131719522178173065f, 0.0070752548053860664368f, 0.0050186193548142910004f, -0.032188951969146728516f, 0.012113345786929130554f, -0.033523514866828918457f, -0.00046466480125673115253f, -0.00052986177615821361542f, -0.028515573590993881226f, 0.031980384141206741333f, -0.014002810232341289520f, -0.020730838179588317871f, -0.016049288213253021240f, 0.013337113894522190094f, 0.0067684510722756385803f, 0.00023880826483946293592f, -0.020462090149521827698f, -0.025323113426566123962f, -0.0017627667402848601341f, 0.031332094222307205200f, -0.021322255954146385193f, 0.025133216753602027893f, 0.023014115169644355774f, -0.019917467609047889709f, -0.011842695996165275574f, -0.0022469286341220140457f, -0.019900692626833915710f, 0.029591146856546401978f, -0.017394363880157470703f, 0.031184643507003784180f, 0.0040453304536640644073f, 0.011904630810022354126f, 0.017960652709007263184f, 0.0041158255189657211304f, -0.029206329956650733948f, 0.024281349033117294312f, 0.0047313929535448551178f, 0.034030456095933914185f, -0.020880060270428657532f, 0.024105755612254142761f, 0.014227263629436492920f, 0.028712537139654159546f, 0.0082611581310629844666f, -0.027768300846219062805f, -0.010900596156716346741f, -0.021045999601483345032f, -0.033379428088665008545f, 0.0012984939385205507278f, 0.026285139843821525574f, 0.0098777636885643005371f, -0.032359790056943893433f, 0.021896811202168464661f, 0.0037629425060003995895f, 0.025152022019028663635f, -0.023257685825228691101f, -0.0079141166061162948608f, -0.0028052900452166795731f, 0.035057716071605682373f, 0.0049444576725363731384f, -0.034151770174503326416f, -0.026242129504680633545f, 0.028027756139636039734f, -0.0083252629265189170837f, -0.029776206240057945251f, -0.015583785250782966614f, -1.8713201370701426640e-06f, 0.025491312146186828613f, -0.0076409289613366127014f, 0.032386302947998046875f, 0.0049423547461628913879f, 0.011199164204299449921f, -0.033994160592555999756f, -0.00091808062279596924782f, -0.010714922100305557251f, -0.010326699353754520416f, -0.034212335944175720215f, -0.013092068023979663849f, 0.031471170485019683838f, -0.031444910913705825806f, -0.0078909993171691894531f, -0.0018058365676552057266f, -0.0092322975397109985352f, -0.017682723701000213623f, -0.00033542991150170564651f, -0.0033509149216115474701f, 0.0086983432993292808533f, -0.028616404160857200623f, -0.018361123278737068176f, 0.012436886318027973175f, 0.029726907610893249512f, 0.030102351680397987366f, 0.0031469115056097507477f, -0.023535164073109626770f, 0.022986305877566337585f, 0.0050666457973420619965f, -0.0017988233594223856926f, 0.028853004798293113708f, 0.019983584061264991760f, -0.028809897601604461670f, 0.023891916498541831970f, 0.015003987587988376617f, 0.034881785511970520020f, -0.028755897656083106995f, -0.023549990728497505188f, -0.027814889326691627502f, 0.0084815230220556259155f, -0.018487952649593353271f, 0.0018489864887669682503f, 0.034591078758239746094f, -0.035319004207849502563f, 0.034682210534811019897f, 0.023637799546122550964f, -0.011102740652859210968f, -0.020452138036489486694f, -0.031325671821832656860f, -0.024153387174010276794f, 0.0015673149609938263893f, -0.00047443865332752466202f, 0.033033587038516998291f, 0.020668575540184974670f, 0.024282060563564300537f, -0.0018361274851486086845f, -0.018863059580326080322f, -0.035191878676414489746f, -0.015259195119142532349f, 0.012413537129759788513f, -0.0090891709551215171814f, 0.033731635659933090210f, -0.0098688071593642234802f, -0.030721997842192649841f, 0.013487148098647594452f, 0.0056340307928621768951f, 0.014217734336853027344f, 0.034959293901920318604f, 0.028145557269454002380f, 0.013539064675569534302f, -0.011115266941487789154f, 0.0084300609305500984192f, -0.021004695445299148560f, 0.025249971076846122742f, 0.0067729945294559001923f, -0.029326768592000007629f, 0.032462734729051589966f, 0.023449955508112907410f, 0.033049929887056350708f, -0.028630536049604415894f, 0.010588367469608783722f, -0.0075611998327076435089f, 0.030068932101130485535f, -0.014749345369637012482f, -0.034414343535900115967f, -0.014486783184111118317f, -0.020206198096275329590f, -0.021597942337393760681f, -0.00090196367818862199783f, 0.025952981784939765930f, -0.035185467451810836792f, 0.025898570194840431213f, -0.017856815829873085022f, 0.0021899628918617963791f, 0.0062390952371060848236f, 0.021206440404057502747f, -0.019825650379061698914f, -0.015814522281289100647f, -0.0030776895582675933838f, -0.030192470178008079529f, -0.00081721477909013628960f, -0.0076108193024992942810f, -0.0059108426794409751892f, 0.034977488219738006592f, -0.010739970020949840546f, -0.028957478702068328857f, 0.018040006980299949646f, 0.0053923395462334156036f, 0.00090882519725710153580f, -0.025237681344151496887f, -0.0015742101240903139114f, 0.031821098178625106812f, -0.020308755338191986084f, 0.012326070107519626617f, 0.033702012151479721069f, 0.018197990953922271729f, 0.0066821807995438575745f, -6.6971348132938146591e-05f, -0.034113794565200805664f, 0.014221889898180961609f, 0.026000017300248146057f, -0.029743310064077377319f, 0.019739279523491859436f, -0.021428475156426429749f, -0.0059002684429287910461f, -0.033700309693813323975f, 0.010516245849430561066f, 0.021731751039624214172f, -0.023396888747811317444f, 0.032809909433126449585f, 0.032228492200374603271f, 0.012721111997961997986f, 0.011099423281848430634f, 0.033173613250255584717f, 0.011829268187284469604f, 0.033994853496551513672f, 0.029865683987736701965f, 0.0086454944685101509094f, -0.0027221217751502990723f, -0.027202036231756210327f, -0.0082256784662604331970f, -0.00099885079544037580490f, 0.010379779152572154999f, 0.015766736119985580444f, -0.0076750554144382476807f, 0.016510607674717903137f, 0.0067653027363121509552f, 0.013048512861132621765f, -0.020023647695779800415f, -0.013071871362626552582f, -0.016106026247143745422f, 0.0059930039569735527039f, 0.020097227767109870911f, 0.023890044540166854858f, -0.014315089210867881775f, 0.0094124535098671913147f, 0.011151698417961597443f, -0.030932635068893432617f, -0.020645668730139732361f, -0.016340784728527069092f, 0.0029156263917684555054f, -0.024308504536747932434f, 0.022026976570487022400f, 0.016905497759580612183f, 0.017711257562041282654f, -0.0088024074211716651917f, 0.015822095796465873718f, -0.0053688893094658851624f, 0.017442030832171440125f, -0.028387775644659996033f, -0.023701272904872894287f, 0.035072706639766693115f, 0.0036970542278140783310f, -0.011900184676051139832f, 0.011316226795315742493f, -0.012932411395013332367f, 0.011384922079741954803f, 0.0056798527948558330536f, -0.015292862430214881897f, -0.0036822860129177570343f, 0.011885158717632293701f, 0.013196001760661602020f, 0.018042013049125671387f, 0.00021581295004580169916f, -0.018420610576868057251f, -0.010969880968332290649f, -0.0064650909043848514557f, -0.021705269813537597656f, -0.032063093036413192749f, 0.025734277442097663879f, 0.014812081120908260345f, -0.012430505827069282532f, 0.022224346175789833069f, -0.0048370929434895515442f, 0.020667862147092819214f, -0.034856125712394714355f, -0.0025521772913634777069f, -0.030482688918709754944f, 0.023931723088026046753f, -0.013736193999648094177f, 0.0041942102834582328796f, 0.0082951998338103294373f, 0.015382719226181507111f, -0.016340805217623710632f, 0.031755447387695312500f, -0.016011184081435203552f, 0.0089577781036496162415f, -0.0091881100088357925415f, -0.033265594393014907837f, 0.013580385595560073853f, 0.027737263590097427368f, 0.0087247900664806365967f, -0.027788054198026657104f, -0.033097688108682632446f, 0.013588726520538330078f, 0.013689124025404453278f, -0.0012567980447784066200f, -0.031570006161928176880f, 0.027552867308259010315f, -0.014217165298759937286f, 0.030309725552797317505f, 0.027848202735185623169f, 0.020363410934805870056f, 0.014775737188756465912f, -0.011963897384703159332f, 0.0093796169385313987732f, -0.025610815733671188354f, 0.023211732506752014160f, -0.011460057459771633148f, -0.033771391957998275757f, -0.032435048371553421021f, -0.0022645459976047277451f, -0.026502108201384544373f, -0.019075546413660049438f, 0.0010969097493216395378f, 0.0038984741549938917160f, -0.032895725220441818237f, -0.014657359570264816284f, -0.020006211474537849426f, -0.015259798616170883179f, 0.021833809092640876770f, -0.0059502543881535530090f, 0.013165798969566822052f, 0.010593889281153678894f, -0.023163242265582084656f, 0.025353176519274711609f, -0.0096659464761614799500f, 0.0038148167077451944351f, 0.022364025935530662537f, 0.030194016173481941223f, 0.020751047879457473755f, 0.026493413373827934265f, -0.0093876421451568603516f, 0.034631203860044479370f, -0.010155022144317626953f, 0.0044004134833812713623f, 0.0017432569293305277824f, 0.0020868421997874975204f, 0.024591017514467239380f, -0.0083126947283744812012f, -0.024450495839118957520f, 0.014241096563637256622f, 0.031956817954778671265f, -0.018773868680000305176f, 0.018987113609910011292f, -0.027578344568610191345f, 0.029516585171222686768f, -0.015777977183461189270f, -0.022966071963310241699f, -0.034001823514699935913f, 0.018213044852018356323f, -0.011866390705108642578f, 0.0059407795779407024384f, -0.0077405683696269989014f, -0.0068404716439545154572f, 0.014374452643096446991f, 0.025370916351675987244f, 0.0024313421454280614853f, -0.0043229348957538604736f, 0.011737859807908535004f, 0.034518465399742126465f, 0.020149085670709609985f, -0.026347391307353973389f, 0.0077406442724168300629f, 0.011607537977397441864f, -0.0061993421986699104309f, 0.014313057996332645416f, 0.019317081198096275330f, 0.028487443923950195312f, -0.027578091248869895935f, -0.0018215616000816226006f, 0.0028441031463444232941f, 0.0062291990034282207489f, -0.016170624643564224243f, -0.031846821308135986328f, 0.026996662840247154236f, -0.025874849408864974976f}
};
static const float tensor_main_3_bias[1] = 
{0.016670916229486465454f};
union tensor_union_0 {
float tensor__main_main_0_Conv_output_0[1][5][16][10];
float tensor__main_main_2_Flatten_output_0[1][800];
};
static union tensor_union_0 tu0;

union tensor_union_1 {
float tensor__main_main_1_Relu_output_0[1][5][16][10];
};
static union tensor_union_1 tu1;


static inline void node__main_main_0_Conv( const float x[1][1][16][10], const float w[5][1][3][3], const float bias[5], float y[1][5][16][10] )
{
	/* Conv
	 *
	 * auto_pad: NOTSET
	 * dilations: 1 1 
	 * group: 1
	 * kernel_shape: 3 3 
	 * pads: 1 1 1 1 
	 * strides: 1 1 
	 */
	for( uint32_t b=0; b<1; b++ ) {
	for( uint32_t m=0; m<5; m++) {
		for( int32_t o0=0, i0=-1; o0<16; o0++, i0+=1) {
		for( int32_t o1=0, i1=-1; o1<10; o1++, i1+=1) {
			y[b][m][o0][o1] = bias[m];
			for( int32_t c=0; c<1; c++ ) {
			for( uint32_t k0=0; k0<3; k0++ ) {
			for( uint32_t k1=0; k1<3; k1++ ) {
				int ii0 = i0+k0 * 1;
				if( ii0<0) continue;
				if( ii0>=16) continue;
				int ii1 = i1+k1 * 1;
				if( ii1<0) continue;
				if( ii1>=10) continue;
				y[b][m][o0][o1] += x[b][c][ii0][ii1] *w[m][c][k0][k1];
			} /* k */
			} /* k */
			} /* c */
		} /* o */
		} /* o */
	} /* m */
	} /* b */
}

static inline void node__main_main_1_Relu( const float tensor__main_main_0_Conv_output_0[1][5][16][10], float tensor__main_main_1_Relu_output_0[1][5][16][10] )
{
	/*Relu*/
	float *X = (float*)tensor__main_main_0_Conv_output_0;
	float *Y = (float*)tensor__main_main_1_Relu_output_0;
	for( uint32_t i=0; i<800; i++ )
		Y[i] = X[i] > 0 ? X[i] : 0;

}

static inline void node__main_main_2_Flatten( const float tensor__main_main_1_Relu_output_0[1][5][16][10], float tensor__main_main_2_Flatten_output_0[1][800] )
{
	/* Flatten*/
	float *input = (float*)tensor__main_main_1_Relu_output_0;
	float *output = (float*)tensor__main_main_2_Flatten_output_0;
	for( uint32_t i=0; i<800; i++ )
		output[i] = input[i];

}

static inline void node__main_main_3_Gemm( const float tensor__main_main_2_Flatten_output_0[1][800], const float tensor_main_3_weight[1][800], const float tensor_main_3_bias[1], float tensor_output[1][1] )
{
	/* Gemm */
	/* alpha   = 1.0000000000000000000
	   beta    = 1.0000000000000000000
	   transA  = 0
	   transB  = 1
	 */
	const int M = 1;
	const int K = 800;
	const int N = 1;
	float (*A)[800]  = (float(*)[800])tensor__main_main_2_Flatten_output_0;
	float (*Y)[1]  = (float(*)[1])tensor_output;
	float alpha = 1.0000000000000000000;
	float beta = 1.0000000000000000000;
	float (*C)[1]  = (float(*)[1])tensor_main_3_bias;
	for( uint32_t r=0; r<M; r++ )
		for( uint32_t c=0; c<N; c++ ) {
			float ABrc = 0;
			for( uint32_t i=0; i<K; i++ ) {
				float B = tensor_main_3_weight[c][i];
				ABrc += A[r][i] * B;
			}
			float tmp = ABrc * alpha;
			tmp += C[0][0] * beta;
			Y[r][c] = tmp;
	}
}


void entry(const float tensor_input[1][1][16][10], float tensor_output[1][1]) {
	node__main_main_0_Conv( tensor_input, tensor_main_0_weight, tensor_main_0_bias, tu0.tensor__main_main_0_Conv_output_0);
	node__main_main_1_Relu( tu0.tensor__main_main_0_Conv_output_0, tu1.tensor__main_main_1_Relu_output_0);
	node__main_main_2_Flatten( tu1.tensor__main_main_1_Relu_output_0, tu0.tensor__main_main_2_Flatten_output_0);
	node__main_main_3_Gemm( tu0.tensor__main_main_2_Flatten_output_0, tensor_main_3_weight, tensor_main_3_bias, tensor_output);
}
