// This file is computer-generated by onnx2c 
// (TODO: add creating command line here)
// (TODO: print creation date here )

// ONNX model:
// produced by pytorch, version 1.13.0
// ONNX IR version: 14
// Model documentation: 
/*

*/

#include <float.h>
#include <math.h>
#include <stdbool.h>
#include <stdint.h>
#include <string.h>
#define MAX(X,Y) ( X > Y ? X : Y)
#define MIN(X,Y) ( X < Y ? X : Y)
#define CLIP(X,L) ( MAX(MIN(X,L), -L) )

static const float tensor_l1_weight[100][1] = 
{
  {0.74522167444229125977f},
  {0.76946675777435302734f},
  {-0.091219693422317504883f},
  {0.94848865270614624023f},
  {0.83113455772399902344f},
  {-0.51956111192703247070f},
  {-0.80692416429519653320f},
  {0.57395619153976440430f},
  {-0.50111520290374755859f},
  {-0.77069866657257080078f},
  {-0.51237273216247558594f},
  {-0.49962741136550903320f},
  {0.37498781085014343262f},
  {-0.20305091142654418945f},
  {-0.12757585942745208740f},
  {0.51807457208633422852f},
  {0.80543005466461181641f},
  {0.36562606692314147949f},
  {0.71664506196975708008f},
  {-0.68754160404205322266f},
  {0.79020863771438598633f},
  {0.39727264642715454102f},
  {-0.22098927199840545654f},
  {0.0098396753892302513123f},
  {-0.42660537362098693848f},
  {-0.46064803004264831543f},
  {-0.26438114047050476074f},
  {0.64672082662582397461f},
  {-0.035630762577056884766f},
  {0.41757190227508544922f},
  {0.70812737941741943359f},
  {0.78267556428909301758f},
  {-0.78929561376571655273f},
  {-0.40991437435150146484f},
  {0.55744940042495727539f},
  {0.36523285508155822754f},
  {-0.84393441677093505859f},
  {-0.33860459923744201660f},
  {-0.71965664625167846680f},
  {0.92204159498214721680f},
  {0.72701805830001831055f},
  {-0.62286734580993652344f},
  {-0.58701235055923461914f},
  {-0.092035360634326934814f},
  {0.78278839588165283203f},
  {-0.69859111309051513672f},
  {-0.31038835644721984863f},
  {0.58932828903198242188f},
  {-0.93014198541641235352f},
  {-0.085472576320171356201f},
  {-0.36402106285095214844f},
  {0.34680816531181335449f},
  {0.66345840692520141602f},
  {0.83138424158096313477f},
  {0.41444379091262817383f},
  {-0.35896465182304382324f},
  {-0.48243507742881774902f},
  {0.83063954114913940430f},
  {-0.39748305082321166992f},
  {0.91010558605194091797f},
  {-0.49038514494895935059f},
  {0.75633788108825683594f},
  {0.99457591772079467773f},
  {0.61561632156372070312f},
  {0.50977259874343872070f},
  {-0.41376030445098876953f},
  {0.32872435450553894043f},
  {-0.84297686815261840820f},
  {0.79435533285140991211f},
  {0.52324670553207397461f},
  {-0.27697274088859558105f},
  {-0.17466409504413604736f},
  {0.58029222488403320312f},
  {0.56756240129470825195f},
  {0.90806448459625244141f},
  {0.61916679143905639648f},
  {-0.52218031883239746094f},
  {0.93381720781326293945f},
  {0.88145107030868530273f},
  {0.95478057861328125000f},
  {0.097011789679527282715f},
  {0.86282581090927124023f},
  {-0.84157556295394897461f},
  {0.33733448386192321777f},
  {0.36948567628860473633f},
  {0.31692183017730712891f},
  {-0.54110038280487060547f},
  {0.42533576488494873047f},
  {-0.46237254142761230469f},
  {-0.40018093585968017578f},
  {-0.85989487171173095703f},
  {0.74317139387130737305f},
  {-0.89702898263931274414f},
  {0.63893282413482666016f},
  {0.23530983924865722656f},
  {-0.77311080694198608398f},
  {0.28868934512138366699f},
  {-0.13640607893466949463f},
  {0.19532702863216400146f},
  {-0.80068534612655639648f}
};
static const float tensor_l1_bias[100] = 
{0.86542898416519165039f, -0.56186974048614501953f, 0.61193293333053588867f, -0.20503202080726623535f, -0.21084862947463989258f, -0.85971522331237792969f, -0.59532618522644042969f, -0.91200369596481323242f, 0.49167546629905700684f, -0.55250626802444458008f, 0.34790834784507751465f, -0.077743008732795715332f, 0.048032570630311965942f, 0.060429185628890991211f, -0.21510575711727142334f, -0.21798206865787506104f, -0.30539825558662414551f, 0.27064618468284606934f, 1.0176322460174560547f, 0.72574305534362792969f, -0.091678269207477569580f, -0.45865881443023681641f, -0.088811337947845458984f, -0.44862708449363708496f, 0.69272786378860473633f, 0.36353024840354919434f, 0.29937043786048889160f, -0.98295515775680541992f, 0.039909381419420242310f, 0.28499892354011535645f, 0.44028609991073608398f, 0.23897640407085418701f, 0.38492444157600402832f, -0.50329911708831787109f, -0.43868756294250488281f, 0.50113368034362792969f, -0.42668783664703369141f, 0.40494441986083984375f, 0.48754873871803283691f, -0.89212304353713989258f, -0.42719817161560058594f, 0.15033559501171112061f, -1.0115462541580200195f, -0.019751885905861854553f, -0.10517389327287673950f, 0.27528947591781616211f, -0.30700567364692687988f, -0.59369784593582153320f, -0.65799826383590698242f, -0.28891962766647338867f, -0.19689464569091796875f, 0.15167200565338134766f, 0.20727886259555816650f, 0.52656102180480957031f, 0.017003616318106651306f, 0.096132442355155944824f, -0.68235582113265991211f, -0.84593856334686279297f, -0.024899877607822418213f, 0.85483717918395996094f, 0.34027656912803649902f, -0.78363776206970214844f, 0.91862416267395019531f, -0.75528407096862792969f, 0.41990754008293151855f, -0.85643321275711059570f, 0.52744489908218383789f, 0.14394740760326385498f, -0.52217507362365722656f, -0.28328275680541992188f, -0.31595626473426818848f, -0.020292006433010101318f, 0.55132544040679931641f, -0.79227226972579956055f, -0.67700672149658203125f, 0.50556284189224243164f, -0.043311771005392074585f, 0.31716611981391906738f, 0.60458564758300781250f, 0.60753852128982543945f, -0.11767402291297912598f, -0.25029337406158447266f, 0.30875372886657714844f, 0.23365962505340576172f, 0.099236004054546356201f, 0.32474893331527709961f, -0.056817881762981414795f, -0.76971191167831420898f, 0.74770694971084594727f, 0.59430688619613647461f, -0.90712451934814453125f, 0.45548549294471740723f, 0.12901896238327026367f, -0.37442594766616821289f, -0.084451414644718170166f, 0.51628559827804565430f, 0.69007217884063720703f, 0.88068687915802001953f, -0.093459166586399078369f, -0.10337503254413604736f};
static const float tensor_l2_weight[1][100] = 
{
  {-0.076494835317134857178f, 0.12894439697265625000f, 0.10343614965677261353f, 0.25134649872779846191f, 0.18803875148296356201f, 0.077489778399467468262f, -0.085124589502811431885f, -0.11487728357315063477f, -0.011518239974975585938f, 0.020227855071425437927f, 0.057878091931343078613f, -0.0096525289118289947510f, -0.034121431410312652588f, 0.046010434627532958984f, 0.059929974377155303955f, -0.0016775396652519702911f, 0.13573877513408660889f, -0.096260949969291687012f, -0.18396925926208496094f, 0.062022607773542404175f, 0.19165858626365661621f, -0.15948691964149475098f, 0.049358658492565155029f, 0.025608951225876808167f, -0.0062836417928338050842f, 0.10703277587890625000f, 0.11782727390527725220f, -0.14964269101619720459f, 0.050296582281589508057f, -0.097498141229152679443f, 0.11499128490686416626f, 0.12248943746089935303f, -0.060855995863676071167f, 0.14773799479007720947f, -0.033779751509428024292f, -0.012325599789619445801f, -0.14435289800167083740f, 0.14704823493957519531f, 0.0094746090471744537354f, 0.040835797786712646484f, 0.067934565246105194092f, -0.11596822738647460938f, 0.13435138761997222900f, -0.015103961341083049774f, 0.18358524143695831299f, -0.023725129663944244385f, 0.13804705440998077393f, -0.075565353035926818848f, -0.045386672019958496094f, 0.037939071655273437500f, 0.050873171538114547729f, -0.035743232816457748413f, 0.10486713051795959473f, 0.040797490626573562622f, 0.0078889625146985054016f, 0.12865369021892547607f, 0.041399110108613967896f, 0.011006822809576988220f, 0.013611996546387672424f, 0.095515571534633636475f, 0.038859345018863677979f, -0.015980767086148262024f, 0.094298578798770904541f, -0.11191390454769134521f, -0.064774937927722930908f, 0.17477419972419738770f, -0.16825902462005615234f, -0.13122153282165527344f, 0.0081129278987646102905f, 0.039132919162511825562f, 0.14834490418434143066f, 0.13167832791805267334f, 0.040623143315315246582f, -0.046443302184343338013f, 0.12637691199779510498f, 0.064765311777591705322f, -0.0051646800711750984192f, 0.082884058356285095215f, 0.024025429040193557739f, 0.037599276751279830933f, -0.053665716201066970825f, 0.068259887397289276123f, -0.10095243901014328003f, 0.011199773289263248444f, -0.024164561182260513306f, -0.044182702898979187012f, -0.047399539500474929810f, -0.083531670272350311279f, 0.17800387740135192871f, 0.075105242431163787842f, -0.018388960510492324829f, -0.00059758633142337203026f, -0.10390856862068176270f, 0.10712315887212753296f, -0.14308284223079681396f, -0.033003009855747222900f, -0.010299845598638057709f, 0.041518788784742355347f, -0.14965589344501495361f, -0.18579311668872833252f}
};
static const float tensor_l2_bias[1] = 
{-0.031470123678445816040f};
union tensor_union_0 {
float tensor__l1_Gemm_output_0[1][100];
};
static union tensor_union_0 tu0;

union tensor_union_1 {
float tensor__a1_Tanh_output_0[1][100];
};
static union tensor_union_1 tu1;


static inline void node__l1_Gemm( const float tensor_input[1][1], const float tensor_l1_weight[100][1], const float tensor_l1_bias[100], float tensor__l1_Gemm_output_0[1][100] )
{
	/* Gemm */
	/* alpha   = 1.0000000000000000000
	   beta    = 1.0000000000000000000
	   transA  = 0
	   transB  = 1
	 */
	const int M = 1;
	const int K = 1;
	const int N = 100;
	float (*A)[1]  = (float(*)[1])tensor_input;
	float (*Y)[100]  = (float(*)[100])tensor__l1_Gemm_output_0;
	float alpha = 1.0000000000000000000;
	float beta = 1.0000000000000000000;
	float (*C)[100]  = (float(*)[100])tensor_l1_bias;
	for( uint32_t r=0; r<M; r++ )
		for( uint32_t c=0; c<N; c++ ) {
			float ABrc = 0;
			for( uint32_t i=0; i<K; i++ ) {
				float B = tensor_l1_weight[c][i];
				ABrc += A[r][i] * B;
			}
			float tmp = ABrc * alpha;
			tmp += C[0][c] * beta;
			Y[r][c] = tmp;
	}
}

static inline void node__a1_Tanh( const float tensor__l1_Gemm_output_0[1][100], float tensor__a1_Tanh_output_0[1][100] )
{
	/* Tanh
	   alpha = 0.0000000000000000000
	   beta = 0.0000000000000000000
	*/
	for (unsigned i0=0; i0<1; i0++) {
	for (unsigned i1=0; i1<100; i1++) {
		tensor__a1_Tanh_output_0[i0][i1] = tanhf(tensor__l1_Gemm_output_0[i0][i1]);
	}
	}
}

static inline void node__l2_Gemm( const float tensor__a1_Tanh_output_0[1][100], const float tensor_l2_weight[1][100], const float tensor_l2_bias[1], float tensor_output[1][1] )
{
	/* Gemm */
	/* alpha   = 1.0000000000000000000
	   beta    = 1.0000000000000000000
	   transA  = 0
	   transB  = 1
	 */
	const int M = 1;
	const int K = 100;
	const int N = 1;
	float (*A)[100]  = (float(*)[100])tensor__a1_Tanh_output_0;
	float (*Y)[1]  = (float(*)[1])tensor_output;
	float alpha = 1.0000000000000000000;
	float beta = 1.0000000000000000000;
	float (*C)[1]  = (float(*)[1])tensor_l2_bias;
	for( uint32_t r=0; r<M; r++ )
		for( uint32_t c=0; c<N; c++ ) {
			float ABrc = 0;
			for( uint32_t i=0; i<K; i++ ) {
				float B = tensor_l2_weight[c][i];
				ABrc += A[r][i] * B;
			}
			float tmp = ABrc * alpha;
			tmp += C[0][0] * beta;
			Y[r][c] = tmp;
	}
}
